{
  "type": "LSTM",
  "options": {
    "inputSize": 31,
    "inputRange": 31,
    "hiddenLayers": [
      20,
      20
    ],
    "outputSize": 31,
    "decayRate": 0.999,
    "smoothEps": 1e-8,
    "regc": 0.000001,
    "clipval": 5,
    "maxPredictionLength": 100,
    "dataFormatter": {
      "values": [
        "my unit test failed",
        "software",
        "tried the program, but it was buggy",
        "i need a new power supply",
        "hardware",
        "the drive has a 2TB capacity",
        "unit-tests",
        "program",
        "power supply",
        "drive",
        "it needs more memory",
        "code",
        "i found some bugs in the code",
        "i swapped the memory",
        "i tested the code",
        "i love computers",
        "programming",
        "i broke my pc",
        "computer",
        "buy me a laptop",
        "i love to play games"
      ],
      "indexTable": {
        "2": 22,
        "m": 0,
        "y": 1,
        " ": 2,
        "u": 3,
        "n": 4,
        "i": 5,
        "t": 6,
        "e": 7,
        "s": 8,
        "f": 9,
        "a": 10,
        "l": 11,
        "d": 12,
        "o": 13,
        "w": 14,
        "r": 15,
        "h": 16,
        "p": 17,
        "g": 18,
        ",": 19,
        "b": 20,
        "v": 21,
        "T": 23,
        "B": 24,
        "c": 25,
        "-": 26,
        "k": 27,
        "stop-input": 28,
        "start-output": 29,
        "unrecognized": 30
      },
      "characterTable": {
        "0": "m",
        "1": "y",
        "2": " ",
        "3": "u",
        "4": "n",
        "5": "i",
        "6": "t",
        "7": "e",
        "8": "s",
        "9": "f",
        "10": "a",
        "11": "l",
        "12": "d",
        "13": "o",
        "14": "w",
        "15": "r",
        "16": "h",
        "17": "p",
        "18": "g",
        "19": ",",
        "20": "b",
        "21": "v",
        "22": "2",
        "23": "T",
        "24": "B",
        "25": "c",
        "26": "-",
        "27": "k",
        "28": null,
        "29": null,
        "30": null
      },
      "characters": [
        "m",
        "y",
        " ",
        "u",
        "n",
        "i",
        "t",
        "e",
        "s",
        "f",
        "a",
        "l",
        "d",
        "o",
        "w",
        "r",
        "h",
        "p",
        "g",
        ",",
        "b",
        "v",
        "2",
        "T",
        "B",
        "c",
        "-",
        "k",
        "stop-input",
        "start-output",
        "unrecognized"
      ],
      "specialIndexes": [
        28,
        29,
        30
      ]
    }
  },
  "input": {
    "rows": 32,
    "columns": 31,
    "weights": {
      "0": -2.082611322402954,
      "1": -3.375242233276367,
      "2": 0.7707803845405579,
      "3": 0.9610342979431152,
      "4": -0.4570183753967285,
      "5": -0.7483825087547302,
      "6": -1.565350890159607,
      "7": 0.26196685433387756,
      "8": -2.520129442214966,
      "9": 0.11967096477746964,
      "10": -1.54273521900177,
      "11": 1.8065900802612305,
      "12": -0.2796541452407837,
      "13": -1.2386590242385864,
      "14": 0.6717382073402405,
      "15": 0.24281124770641327,
      "16": -1.7785334587097168,
      "17": 0.34695857763290405,
      "18": 1.5043522119522095,
      "19": 2.847827434539795,
      "20": 0.9183998703956604,
      "21": -0.4957030117511749,
      "22": -0.012799167074263096,
      "23": -0.49020683765411377,
      "24": -1.6057720184326172,
      "25": -0.349102258682251,
      "26": 0.3613802492618561,
      "27": -0.46554914116859436,
      "28": 1.6607344150543213,
      "29": 0.8688665628433228,
      "30": 3.798088550567627,
      "31": -1.8706945180892944,
      "32": 3.800875663757324,
      "33": 1.2879743576049805,
      "34": -1.5023143291473389,
      "35": -2.101633310317993,
      "36": 1.517958402633667,
      "37": 1.3426446914672852,
      "38": -1.9901022911071777,
      "39": 0.4647378623485565,
      "40": 0.9983093738555908,
      "41": -4.932461261749268,
      "42": -0.44412025809288025,
      "43": 2.10550594329834,
      "44": -2.92962908744812,
      "45": 2.1261212825775146,
      "46": -0.8802390098571777,
      "47": -3.9324564933776855,
      "48": -2.771754503250122,
      "49": 0.020656472072005272,
      "50": -4.559886455535889,
      "51": 4.4533491134643555,
      "52": -1.0921134948730469,
      "53": -2.6437759399414062,
      "54": -1.7550262212753296,
      "55": 0.32835033535957336,
      "56": -0.18785732984542847,
      "57": 1.9636868238449097,
      "58": 0.4225362241268158,
      "59": -1.0123536586761475,
      "60": 0.2822597920894623,
      "61": -0.8145155310630798,
      "62": 1.027761697769165,
      "63": 3.2274911403656006,
      "64": -1.623542070388794,
      "65": -0.12323255836963654,
      "66": 3.9620087146759033,
      "67": -0.8698902130126953,
      "68": 1.4404841661453247,
      "69": 0.18097858130931854,
      "70": 0.26448842883110046,
      "71": -4.071381568908691,
      "72": -0.34347647428512573,
      "73": -0.8749475479125977,
      "74": -2.9812073707580566,
      "75": 0.2883688509464264,
      "76": 1.0567684173583984,
      "77": -0.7744323015213013,
      "78": 1.8559041023254395,
      "79": 1.348380208015442,
      "80": -0.842586874961853,
      "81": -1.8711464405059814,
      "82": -2.792271852493286,
      "83": 1.6186832189559937,
      "84": 0.11252731829881668,
      "85": 0.38602253794670105,
      "86": 0.9729874134063721,
      "87": -0.9712585210800171,
      "88": -1.9527356624603271,
      "89": -1.5605872869491577,
      "90": -1.1941604614257812,
      "91": 1.1771279573440552,
      "92": -1.0218905210494995,
      "93": 1.0631754398345947,
      "94": -0.4212287962436676,
      "95": 2.7317919731140137,
      "96": -2.556555986404419,
      "97": 0.7704720497131348,
      "98": 0.5978602766990662,
      "99": 0.8492177724838257,
      "100": 1.5136017799377441,
      "101": 0.5386156439781189,
      "102": -0.48059386014938354,
      "103": 0.4602326452732086,
      "104": -0.724833071231842,
      "105": -2.7875142097473145,
      "106": -0.43042537569999695,
      "107": 1.2625787258148193,
      "108": -1.0962920188903809,
      "109": 2.04714298248291,
      "110": 2.906216859817505,
      "111": -0.07015635818243027,
      "112": -0.061153676360845566,
      "113": 0.23710820078849792,
      "114": 2.390658140182495,
      "115": 0.3491857349872589,
      "116": 1.3168423175811768,
      "117": -0.10685718059539795,
      "118": -0.22829778492450714,
      "119": -0.6261473894119263,
      "120": 0.7189911007881165,
      "121": -0.13422557711601257,
      "122": 2.3975870609283447,
      "123": -1.3574516773223877,
      "124": -4.036387920379639,
      "125": -1.284528374671936,
      "126": -0.09587240219116211,
      "127": 3.8273026943206787,
      "128": -0.6352254748344421,
      "129": -2.353466272354126,
      "130": -1.0784878730773926,
      "131": -0.06969481706619263,
      "132": -2.9247472286224365,
      "133": -2.2951619625091553,
      "134": 1.8043736219406128,
      "135": 2.9414968490600586,
      "136": -0.9193775653839111,
      "137": -1.8864390850067139,
      "138": -3.6112241744995117,
      "139": 1.7958801984786987,
      "140": -0.01297029573470354,
      "141": -0.4975438416004181,
      "142": 8.535324096679688,
      "143": 0.12184568494558334,
      "144": -3.965496063232422,
      "145": 1.750098705291748,
      "146": 1.8285552263259888,
      "147": 0.5942639708518982,
      "148": -4.673867702484131,
      "149": 1.9171855449676514,
      "150": -2.3631319999694824,
      "151": -1.3496235609054565,
      "152": 2.596067428588867,
      "153": -5.335834980010986,
      "154": -0.32059013843536377,
      "155": 3.915783643722534,
      "156": -0.9207305908203125,
      "157": 3.092031717300415,
      "158": -0.9739856123924255,
      "159": 2.9495344161987305,
      "160": -0.7485398054122925,
      "161": -0.5042858123779297,
      "162": 1.072646141052246,
      "163": -0.7073391079902649,
      "164": -2.7564175128936768,
      "165": -0.8003494739532471,
      "166": -1.1332200765609741,
      "167": -2.5484020709991455,
      "168": 1.8353618383407593,
      "169": 3.6723203659057617,
      "170": -5.817242622375488,
      "171": 2.542510986328125,
      "172": 0.04245368391275406,
      "173": -2.316056728363037,
      "174": -0.7864062786102295,
      "175": 2.7572758197784424,
      "176": 3.795537233352661,
      "177": 0.9709587693214417,
      "178": 1.4233638048171997,
      "179": 0.9057624936103821,
      "180": 0.1265132576227188,
      "181": -3.334033727645874,
      "182": 3.3283824920654297,
      "183": -4.4219207763671875,
      "184": 2.4074885845184326,
      "185": 0.39415448904037476,
      "186": 1.2952731847763062,
      "187": 0.7549372911453247,
      "188": -0.5555656552314758,
      "189": 2.205388069152832,
      "190": -1.1171238422393799,
      "191": -1.8716555833816528,
      "192": -0.4555804133415222,
      "193": -0.6230495572090149,
      "194": 1.2469552755355835,
      "195": -1.7202122211456299,
      "196": 1.1879076957702637,
      "197": -0.3741687834262848,
      "198": -0.5840029716491699,
      "199": 3.2675044536590576,
      "200": -2.3324997425079346,
      "201": 0.7579770088195801,
      "202": 1.3672304153442383,
      "203": 2.0796732902526855,
      "204": 0.9529820084571838,
      "205": 1.5912278890609741,
      "206": -1.1796271800994873,
      "207": 1.8697688579559326,
      "208": 1.5542278289794922,
      "209": 0.9898532032966614,
      "210": -1.6282366514205933,
      "211": 0.9444118142127991,
      "212": -2.3469839096069336,
      "213": 1.3934930562973022,
      "214": -0.7861621379852295,
      "215": -0.21035096049308777,
      "216": 0.7293393015861511,
      "217": -1.589975357055664,
      "218": 0.5490264296531677,
      "219": 1.8371778726577759,
      "220": 1.102942943572998,
      "221": -0.9064465165138245,
      "222": -0.7866077423095703,
      "223": -0.10623946785926819,
      "224": -1.3632051944732666,
      "225": 1.8511502742767334,
      "226": 0.42674222588539124,
      "227": -1.4705263376235962,
      "228": -1.3853453397750854,
      "229": -0.2198769748210907,
      "230": 1.3630107641220093,
      "231": -0.42290428280830383,
      "232": 0.6017425656318665,
      "233": -0.9641476273536682,
      "234": 1.3418675661087036,
      "235": -0.6004855632781982,
      "236": -0.9402105212211609,
      "237": 0.19438208639621735,
      "238": -0.1809784471988678,
      "239": 0.6788567304611206,
      "240": -1.9785398244857788,
      "241": -0.5933000445365906,
      "242": -1.200783133506775,
      "243": 0.6482173800468445,
      "244": 2.2918567657470703,
      "245": 0.46468040347099304,
      "246": 2.001892566680908,
      "247": 0.777240514755249,
      "248": -1.9027023315429688,
      "249": 2.9012808799743652,
      "250": 0.9243318438529968,
      "251": 0.31289681792259216,
      "252": -0.4564380943775177,
      "253": 0.09632448852062225,
      "254": 1.1069105863571167,
      "255": -0.9265521168708801,
      "256": 0.8237352967262268,
      "257": -1.9512097835540771,
      "258": -0.8220065832138062,
      "259": -0.694049596786499,
      "260": -0.5657981038093567,
      "261": 1.9135324954986572,
      "262": -1.5776209831237793,
      "263": -0.05713127180933952,
      "264": 1.7616441249847412,
      "265": 2.297161817550659,
      "266": -0.9849094152450562,
      "267": -0.8205021619796753,
      "268": -1.2099095582962036,
      "269": 0.6021232604980469,
      "270": 1.2137960195541382,
      "271": -1.0471208095550537,
      "272": 1.437078833580017,
      "273": -2.011352300643921,
      "274": -0.22387780249118805,
      "275": 0.7806081771850586,
      "276": 0.09611853957176208,
      "277": 1.315200686454773,
      "278": 0.24157686531543732,
      "279": -0.11490216106176376,
      "280": -0.18233245611190796,
      "281": 0.9002115726470947,
      "282": 0.20819354057312012,
      "283": 0.23900845646858215,
      "284": -1.1910463571548462,
      "285": -0.1188010647892952,
      "286": 0.38647714257240295,
      "287": -0.45431312918663025,
      "288": 0.23010069131851196,
      "289": 0.8808420896530151,
      "290": 0.04350004717707634,
      "291": -0.540697455406189,
      "292": 0.2607291638851166,
      "293": -0.3171209990978241,
      "294": 0.06247711926698685,
      "295": -0.11515295505523682,
      "296": -0.8823750615119934,
      "297": 0.09050342440605164,
      "298": -0.3497335612773895,
      "299": -3.043769598007202,
      "300": 0.44480136036872864,
      "301": 0.48827871680259705,
      "302": 0.8074131608009338,
      "303": -0.09576039016246796,
      "304": 0.7178306579589844,
      "305": -0.028009939938783646,
      "306": -0.05404174327850342,
      "307": 0.8330827951431274,
      "308": -0.01332000084221363,
      "309": 0.15379004180431366,
      "310": -0.1022602841258049,
      "311": 1.050081729888916,
      "312": 1.3257505893707275,
      "313": -1.7438850402832031,
      "314": -0.05060107260942459,
      "315": 4.8536834716796875,
      "316": -0.6217896342277527,
      "317": -1.3527902364730835,
      "318": -1.245829701423645,
      "319": -0.45378297567367554,
      "320": -2.906933546066284,
      "321": 1.7006298303604126,
      "322": 0.44515931606292725,
      "323": -1.259907841682434,
      "324": -0.1394570767879486,
      "325": 1.498221516609192,
      "326": 0.22985588014125824,
      "327": 1.924835205078125,
      "328": 0.8099664449691772,
      "329": 0.49199536442756653,
      "330": -2.075957775115967,
      "331": 0.5537915825843811,
      "332": -2.819385051727295,
      "333": -3.1888132095336914,
      "334": 0.4043945074081421,
      "335": -0.8780834078788757,
      "336": 1.1413705348968506,
      "337": 0.2106841802597046,
      "338": 0.9333562850952148,
      "339": -0.19533461332321167,
      "340": -0.534832775592804,
      "341": 1.347366452217102,
      "342": -0.7749534845352173,
      "343": 0.26305392384529114,
      "344": -1.6711856126785278,
      "345": -0.15264753997325897,
      "346": 0.44701436161994934,
      "347": 1.2640132904052734,
      "348": -0.9783352613449097,
      "349": -2.3967387676239014,
      "350": 0.7262442708015442,
      "351": -1.4407687187194824,
      "352": 1.7338581085205078,
      "353": 0.2642937898635864,
      "354": -0.6046187281608582,
      "355": 0.24428007006645203,
      "356": 0.8220481276512146,
      "357": 1.6943565607070923,
      "358": 2.271146774291992,
      "359": -0.6930833458900452,
      "360": -0.3244037330150604,
      "361": -1.7345170974731445,
      "362": 0.6527000069618225,
      "363": -1.7436121702194214,
      "364": -1.2458431720733643,
      "365": 0.6074729561805725,
      "366": -0.3207986056804657,
      "367": -0.641242504119873,
      "368": -2.0700864791870117,
      "369": -1.1871240139007568,
      "370": 0.37309974431991577,
      "371": -2.1893510818481445,
      "372": 2.3919665813446045,
      "373": 1.6902623176574707,
      "374": -3.1656203269958496,
      "375": -0.9990665912628174,
      "376": -0.13944751024246216,
      "377": -0.06970600038766861,
      "378": 3.073157787322998,
      "379": -0.29744234681129456,
      "380": 0.7573919296264648,
      "381": -2.413372755050659,
      "382": 1.2414028644561768,
      "383": -2.7436296939849854,
      "384": -4.080323219299316,
      "385": 0.5245946049690247,
      "386": 1.4183197021484375,
      "387": 4.657442569732666,
      "388": 3.096714735031128,
      "389": 1.6388829946517944,
      "390": 1.7222713232040405,
      "391": -3.256610631942749,
      "392": -0.4520958662033081,
      "393": 6.614882469177246,
      "394": 1.1666926145553589,
      "395": -0.8999113440513611,
      "396": -0.8728060722351074,
      "397": -1.327649712562561,
      "398": -4.92017936706543,
      "399": -3.93485426902771,
      "400": 0.7794106006622314,
      "401": 1.4570246934890747,
      "402": -1.9224474430084229,
      "403": -0.800091028213501,
      "404": -1.49630868434906,
      "405": 0.7158275246620178,
      "406": -3.1462416648864746,
      "407": -0.8102554678916931,
      "408": 2.1711347103118896,
      "409": 0.9137446284294128,
      "410": -0.8822118043899536,
      "411": 3.0495152473449707,
      "412": 3.354496479034424,
      "413": -0.9719330668449402,
      "414": 0.11845745146274567,
      "415": 1.9028350114822388,
      "416": -1.5207735300064087,
      "417": 0.5807582139968872,
      "418": 3.5406925678253174,
      "419": -0.9603436589241028,
      "420": -0.863760769367218,
      "421": -0.41205376386642456,
      "422": 2.5804662704467773,
      "423": -0.5645747780799866,
      "424": -0.1796155869960785,
      "425": -3.0026097297668457,
      "426": -3.0651354789733887,
      "427": -3.293430805206299,
      "428": -1.2941906452178955,
      "429": 3.274508476257324,
      "430": -2.235696315765381,
      "431": 0.030175993219017982,
      "432": 1.252036690711975,
      "433": -1.331822395324707,
      "434": -0.4237785339355469,
      "435": -0.26669958233833313,
      "436": 0.057961951941251755,
      "437": -3.947542190551758,
      "438": -1.1467044353485107,
      "439": 3.942448616027832,
      "440": 0.8813373446464539,
      "441": 0.928251326084137,
      "442": 0.15740345418453217,
      "443": 0.6907145977020264,
      "444": 0.19608673453330994,
      "445": 0.2982991933822632,
      "446": -0.08081445842981339,
      "447": -2.359351396560669,
      "448": 1.4932444095611572,
      "449": 0.7789090871810913,
      "450": -2.6536717414855957,
      "451": -2.4893810749053955,
      "452": 2.98564076423645,
      "453": 0.00026224664179608226,
      "454": -2.3129518032073975,
      "455": -1.1254035234451294,
      "456": -1.685400128364563,
      "457": 2.330846071243286,
      "458": -0.1364324688911438,
      "459": -0.2119489461183548,
      "460": 0.9934623837471008,
      "461": -1.1865578889846802,
      "462": 3.0569117069244385,
      "463": -0.28738316893577576,
      "464": 0.5216889381408691,
      "465": -0.8613476753234863,
      "466": 0.2573697566986084,
      "467": 5.371557712554932,
      "468": 0.7396812438964844,
      "469": 1.1165424585342407,
      "470": 0.01974051631987095,
      "471": 0.39594876766204834,
      "472": -0.4397321939468384,
      "473": -0.6045120358467102,
      "474": -0.8175688982009888,
      "475": -0.9136087894439697,
      "476": 1.0232555866241455,
      "477": -1.437839388847351,
      "478": -1.9997549057006836,
      "479": -0.4648730158805847,
      "480": -2.9115958213806152,
      "481": 0.29613417387008667,
      "482": -1.7381703853607178,
      "483": 1.0464239120483398,
      "484": 0.8475300073623657,
      "485": 2.714820623397827,
      "486": 1.0254459381103516,
      "487": 0.0708637684583664,
      "488": -0.7615704536437988,
      "489": -0.08797238767147064,
      "490": -0.28836724162101746,
      "491": -0.33872103691101074,
      "492": 1.2116801738739014,
      "493": -0.7984892129898071,
      "494": -0.4327112138271332,
      "495": -0.7658547163009644,
      "496": -0.29515329003334045,
      "497": 0.5925179719924927,
      "498": -0.20111361145973206,
      "499": -0.9437136054039001,
      "500": 0.21672482788562775,
      "501": -1.241889238357544,
      "502": 0.9944362640380859,
      "503": 1.2069246768951416,
      "504": 0.9885658621788025,
      "505": 0.4860094487667084,
      "506": 0.58403480052948,
      "507": -0.7908806204795837,
      "508": 0.4392545521259308,
      "509": 0.17045506834983826,
      "510": 1.5226609706878662,
      "511": -2.390745162963867,
      "512": -0.18461880087852478,
      "513": -0.023121878504753113,
      "514": -1.1125041246414185,
      "515": -1.1801607608795166,
      "516": 1.1154383420944214,
      "517": -0.026682406663894653,
      "518": -0.5274113416671753,
      "519": 0.2480509877204895,
      "520": -0.36643412709236145,
      "521": 1.5583081245422363,
      "522": 0.062149662524461746,
      "523": 0.6771852970123291,
      "524": -0.15092889964580536,
      "525": 0.6965672373771667,
      "526": -2.485107421875,
      "527": 1.477982521057129,
      "528": -1.5981686115264893,
      "529": -1.352402925491333,
      "530": 2.0677528381347656,
      "531": -1.1282659769058228,
      "532": -1.029097080230713,
      "533": -0.29115989804267883,
      "534": 0.45635175704956055,
      "535": -0.17740398645401,
      "536": -0.21442951261997223,
      "537": 2.412738800048828,
      "538": -0.15797854959964752,
      "539": 0.5685257911682129,
      "540": 0.334257572889328,
      "541": 0.49442583322525024,
      "542": 4.383509635925293,
      "543": -3.1030826568603516,
      "544": -0.7329332232475281,
      "545": 2.016355037689209,
      "546": 2.3127658367156982,
      "547": -1.0913997888565063,
      "548": -0.9089688658714294,
      "549": -0.07666289806365967,
      "550": -0.19956554472446442,
      "551": -1.0673571825027466,
      "552": 0.2640586793422699,
      "553": -0.06257618218660355,
      "554": -2.4449446201324463,
      "555": 1.3268022537231445,
      "556": -0.2288694679737091,
      "557": 3.8053338527679443,
      "558": 2.8082010746002197,
      "559": -0.9719025492668152,
      "560": 0.05936865881085396,
      "561": -1.102234125137329,
      "562": 2.4621706008911133,
      "563": 5.713506698608398,
      "564": 0.08927919715642929,
      "565": -0.5216139554977417,
      "566": -2.3949196338653564,
      "567": -4.036888599395752,
      "568": -2.0673770904541016,
      "569": 2.3032283782958984,
      "570": -3.7673277854919434,
      "571": -2.099421739578247,
      "572": -1.6023788452148438,
      "573": 0.5679527521133423,
      "574": 0.6282316446304321,
      "575": 0.5953344702720642,
      "576": 1.6565594673156738,
      "577": 4.000265598297119,
      "578": -2.4884159564971924,
      "579": 3.9638113975524902,
      "580": -3.2701992988586426,
      "581": 0.42621085047721863,
      "582": -0.47463685274124146,
      "583": -0.49067381024360657,
      "584": -2.1473402976989746,
      "585": 0.2519736588001251,
      "586": 0.7552934885025024,
      "587": -1.1889983415603638,
      "588": -0.015628280118107796,
      "589": -7.718048572540283,
      "590": -1.4730849266052246,
      "591": -0.05999006703495979,
      "592": 2.108887195587158,
      "593": -5.68738317489624,
      "594": -0.8410365581512451,
      "595": -0.14417141675949097,
      "596": 1.337377667427063,
      "597": -2.3359899520874023,
      "598": 5.383310317993164,
      "599": 0.6494656205177307,
      "600": -1.2188481092453003,
      "601": 6.170506954193115,
      "602": -0.4655129909515381,
      "603": -1.4630473852157593,
      "604": -0.7672372460365295,
      "605": -4.301400661468506,
      "606": -1.069483757019043,
      "607": 0.39626193046569824,
      "608": -0.2108820527791977,
      "609": 1.4346721172332764,
      "610": -5.275140762329102,
      "611": 0.960810661315918,
      "612": 0.4589422345161438,
      "613": -1.9204896688461304,
      "614": -1.1003987789154053,
      "615": 6.818022727966309,
      "616": 1.0069204568862915,
      "617": 3.48655366897583,
      "618": -0.34365424513816833,
      "619": 3.8302533626556396,
      "620": 6.537021636962891,
      "621": 4.231318950653076,
      "622": -7.303445339202881,
      "623": -0.7281647324562073,
      "624": 9.819108009338379,
      "625": 0.767077624797821,
      "626": 0.41094285249710083,
      "627": 3.7177536487579346,
      "628": 6.273939609527588,
      "629": -8.38940715789795,
      "630": 5.309840679168701,
      "631": -5.812053203582764,
      "632": -6.761448383331299,
      "633": 9.030953407287598,
      "634": 4.284098148345947,
      "635": -0.7556954622268677,
      "636": 7.672857761383057,
      "637": 1.252737045288086,
      "638": -1.471924901008606,
      "639": -6.548725128173828,
      "640": 4.840830326080322,
      "641": 10.063751220703125,
      "642": 1.2529925107955933,
      "643": 5.302137851715088,
      "644": -13.219987869262695,
      "645": 10.335661888122559,
      "646": -8.548134803771973,
      "647": 0.752822756767273,
      "648": -6.397870063781738,
      "649": 1.2640944719314575,
      "650": -3.438986301422119,
      "651": 2.051591157913208,
      "652": 3.759380340576172,
      "653": 1.5455918312072754,
      "654": -1.6049730777740479,
      "655": -2.093564987182617,
      "656": 2.67427659034729,
      "657": 2.571028709411621,
      "658": -8.555582046508789,
      "659": 1.872518539428711,
      "660": 2.1279218196868896,
      "661": -8.065065383911133,
      "662": -0.7532918453216553,
      "663": 1.7232760190963745,
      "664": 0.6622318029403687,
      "665": -0.48307356238365173,
      "666": 3.1440343856811523,
      "667": -1.5740103721618652,
      "668": -0.04702357202768326,
      "669": 0.7448780536651611,
      "670": -2.1557109355926514,
      "671": -2.5412163734436035,
      "672": -2.906125545501709,
      "673": -1.2582433223724365,
      "674": -6.885956764221191,
      "675": 2.883817195892334,
      "676": -6.951694965362549,
      "677": 6.436436653137207,
      "678": 4.408400535583496,
      "679": -0.5570751428604126,
      "680": 3.474396228790283,
      "681": 2.617851495742798,
      "682": -1.724660873413086,
      "683": -2.760075330734253,
      "684": -2.4641711711883545,
      "685": -1.4856414794921875,
      "686": -2.276110887527466,
      "687": 4.6109538078308105,
      "688": 1.0476154088974,
      "689": 3.5661444664001465,
      "690": -0.6566791534423828,
      "691": 3.5410680770874023,
      "692": -1.7476733922958374,
      "693": 5.786960124969482,
      "694": 2.457230806350708,
      "695": -2.0159554481506348,
      "696": -1.520696759223938,
      "697": 2.4624009132385254,
      "698": -4.620351314544678,
      "699": -1.367248296737671,
      "700": -1.7958998680114746,
      "701": 0.2903967499732971,
      "702": 3.392781972885132,
      "703": -8.625011444091797,
      "704": -3.9338860511779785,
      "705": 1.7341744899749756,
      "706": 0.012242574244737625,
      "707": 3.897313356399536,
      "708": 3.2159206867218018,
      "709": -6.037536144256592,
      "710": 6.9058027267456055,
      "711": -1.6817611455917358,
      "712": -1.8519773483276367,
      "713": 4.053703784942627,
      "714": 1.420346736907959,
      "715": 11.183069229125977,
      "716": -0.020409854128956795,
      "717": 8.063673973083496,
      "718": -5.869098663330078,
      "719": 7.149118900299072,
      "720": -0.19761130213737488,
      "721": 8.201549530029297,
      "722": -6.397980213165283,
      "723": 12.163226127624512,
      "724": -8.05491828918457,
      "725": -6.179049968719482,
      "726": 6.6450910568237305,
      "727": 4.3935346603393555,
      "728": 0.296238511800766,
      "729": 3.527001142501831,
      "730": 15.722238540649414,
      "731": 3.076591968536377,
      "732": 7.416906833648682,
      "733": -7.163340091705322,
      "734": 5.746485233306885,
      "735": 3.7105767726898193,
      "736": 7.067806243896484,
      "737": 7.361788272857666,
      "738": -5.719873905181885,
      "739": -4.0973076820373535,
      "740": 4.175803184509277,
      "741": 1.8841986656188965,
      "742": 8.938220977783203,
      "743": -0.23098208010196686,
      "744": 9.633735656738281,
      "745": 1.8735467195510864,
      "746": -8.18643856048584,
      "747": -7.5285844802856445,
      "748": -6.502862930297852,
      "749": 13.71711540222168,
      "750": -6.319461345672607,
      "751": 5.471834182739258,
      "752": 5.6122050285339355,
      "753": 3.6368539333343506,
      "754": -6.630204677581787,
      "755": -6.266815662384033,
      "756": 5.701808452606201,
      "757": -8.26511001586914,
      "758": -11.03051471710205,
      "759": 2.5733275413513184,
      "760": -8.371492385864258,
      "761": -13.652377128601074,
      "762": -2.0425262451171875,
      "763": 3.559281587600708,
      "764": -2.439119815826416,
      "765": -0.6564003825187683,
      "766": -12.565472602844238,
      "767": -9.058744430541992,
      "768": -3.048292636871338,
      "769": 1.7888346910476685,
      "770": -0.7569588422775269,
      "771": 4.80833625793457,
      "772": -1.4279478788375854,
      "773": -3.2847037315368652,
      "774": -6.251213550567627,
      "775": -3.1598310470581055,
      "776": -13.765176773071289,
      "777": -6.523239612579346,
      "778": 6.197918891906738,
      "779": 0.47699663043022156,
      "780": 2.886831045150757,
      "781": -4.809978485107422,
      "782": 4.155636310577393,
      "783": -5.879338264465332,
      "784": -3.5495729446411133,
      "785": 0.7405746579170227,
      "786": 9.956080436706543,
      "787": -2.59259295463562,
      "788": 3.2975642681121826,
      "789": -14.441854476928711,
      "790": 12.906405448913574,
      "791": -1.484234094619751,
      "792": 6.98984956741333,
      "793": 7.17401647567749,
      "794": 15.47546672821045,
      "795": -11.403389930725098,
      "796": -0.8468054533004761,
      "797": 3.4684770107269287,
      "798": 6.745408535003662,
      "799": -3.5642175674438477,
      "800": 4.056484222412109,
      "801": -1.2469135522842407,
      "802": -6.907992362976074,
      "803": 10.528202056884766,
      "804": -3.117008924484253,
      "805": 5.444892883300781,
      "806": 2.7031373977661133,
      "807": 2.446838617324829,
      "808": -0.2977088987827301,
      "809": -2.06884765625,
      "810": 0.9296272993087769,
      "811": 0.682755172252655,
      "812": 0.5321147441864014,
      "813": 1.081567406654358,
      "814": 0.7883886694908142,
      "815": -1.439395785331726,
      "816": 0.14576545357704163,
      "817": -4.835707664489746,
      "818": -2.3760859966278076,
      "819": -2.441728115081787,
      "820": 3.924964427947998,
      "821": -4.6821794509887695,
      "822": 6.032269477844238,
      "823": 3.2283787727355957,
      "824": -3.054257392883301,
      "825": -3.9049432277679443,
      "826": -2.3588461875915527,
      "827": 4.202689170837402,
      "828": -1.109461784362793,
      "829": -0.11084350198507309,
      "830": 1.0912024974822998,
      "831": 1.7528018951416016,
      "832": -1.2787147760391235,
      "833": 2.034485101699829,
      "834": -1.9305617809295654,
      "835": 5.5865912437438965,
      "836": -2.405536651611328,
      "837": -12.195980072021484,
      "838": -7.457426071166992,
      "839": 1.6238670349121094,
      "840": 10.641571044921875,
      "841": 6.957393169403076,
      "842": -8.235197067260742,
      "843": 8.38522720336914,
      "844": 6.630828857421875,
      "845": -12.48476791381836,
      "846": -8.674554824829102,
      "847": 8.770671844482422,
      "848": 12.153606414794922,
      "849": -4.353562831878662,
      "850": 3.716733932495117,
      "851": 0.11999902874231339,
      "852": -2.3418173789978027,
      "853": 7.612031936645508,
      "854": 9.925863265991211,
      "855": 4.779651641845703,
      "856": 3.6759660243988037,
      "857": -15.376126289367676,
      "858": 0.34346792101860046,
      "859": 25.401748657226562,
      "860": 4.302082538604736,
      "861": 2.621281623840332,
      "862": 0.4613966941833496,
      "863": 4.162792682647705,
      "864": -3.969627857208252,
      "865": -3.91489839553833,
      "866": -4.446596622467041,
      "867": 0.13809184730052948,
      "868": -5.534671783447266,
      "869": -5.062313079833984,
      "870": -1.7629331350326538,
      "871": 14.206515312194824,
      "872": 0.9790360927581787,
      "873": -2.342440128326416,
      "874": -4.873144626617432,
      "875": 12.410622596740723,
      "876": -5.113748073577881,
      "877": 0.8875241279602051,
      "878": 3.705641746520996,
      "879": 0.07190081477165222,
      "880": -1.6085355281829834,
      "881": 5.1745781898498535,
      "882": -7.71913480758667,
      "883": -0.2886100709438324,
      "884": 0.10240389406681061,
      "885": 4.246941089630127,
      "886": 14.421270370483398,
      "887": 14.084755897521973,
      "888": -12.55640697479248,
      "889": -1.1130504608154297,
      "890": 12.127837181091309,
      "891": 11.240887641906738,
      "892": 1.6986782550811768,
      "893": 8.891237258911133,
      "894": -3.0444910526275635,
      "895": -0.8160939812660217,
      "896": 2.727277994155884,
      "897": -0.0959525778889656,
      "898": 1.7886570692062378,
      "899": 4.0548295974731445,
      "900": 0.04239414259791374,
      "901": -1.1836867332458496,
      "902": -1.1349897384643555,
      "903": 0.0866943821310997,
      "904": -1.571616530418396,
      "905": -1.3234351873397827,
      "906": 1.8361338376998901,
      "907": -0.5702254772186279,
      "908": 1.6541857719421387,
      "909": 2.829855442047119,
      "910": 0.08553534746170044,
      "911": 1.4699199199676514,
      "912": 0.438082218170166,
      "913": 0.4897788465023041,
      "914": -0.7994826436042786,
      "915": 1.4868576526641846,
      "916": 0.4428016245365143,
      "917": 0.48943695425987244,
      "918": 0.5023089647293091,
      "919": 0.8062839508056641,
      "920": 0.6991697549819946,
      "921": -0.6709422469139099,
      "922": 1.0052127838134766,
      "923": -1.9416922330856323,
      "924": 5.0785231590271,
      "925": -2.2216129302978516,
      "926": -0.6105695366859436,
      "927": -2.0161402225494385,
      "928": -1.2975581884384155,
      "929": -2.4455647468566895,
      "930": -0.28677770495414734,
      "931": -0.8765978217124939,
      "932": -2.5519602298736572,
      "933": 0.442350834608078,
      "934": -1.1467986106872559,
      "935": -1.4919803142547607,
      "936": -0.06949232518672943,
      "937": -0.032572999596595764,
      "938": -5.370907783508301,
      "939": 1.023752212524414,
      "940": -0.602131724357605,
      "941": 1.01213800907135,
      "942": 0.8426790237426758,
      "943": 0.19992603361606598,
      "944": -4.264894485473633,
      "945": 1.9860163927078247,
      "946": -0.711599588394165,
      "947": -0.3333609402179718,
      "948": 1.4627515077590942,
      "949": -1.2049342393875122,
      "950": 0.08786489069461823,
      "951": -1.0089988708496094,
      "952": -0.789854884147644,
      "953": 0.5603516697883606,
      "954": -4.20009183883667,
      "955": 1.0729796886444092,
      "956": 0.589996874332428,
      "957": -2.287616491317749,
      "958": -0.012691314332187176,
      "959": -1.650414228439331,
      "960": -0.6475762724876404,
      "961": -0.07342489808797836,
      "962": 0.06102824956178665,
      "963": -0.018610594794154167,
      "964": 0.04881180450320244,
      "965": -0.032970890402793884,
      "966": -0.047308921813964844,
      "967": 0.005909381899982691,
      "968": 0.01956413872539997,
      "969": -0.019732436165213585,
      "970": 0.014651243574917316,
      "971": -0.06881193071603775,
      "972": -0.01740182936191559,
      "973": 0.06115041673183441,
      "974": 0.055856093764305115,
      "975": -0.0008484842837788165,
      "976": 0.06924561411142349,
      "977": -0.061052627861499786,
      "978": -0.02488664723932743,
      "979": 0.0218991506844759,
      "980": -0.02033284679055214,
      "981": -0.042373597621917725,
      "982": 0.04924396425485611,
      "983": 0.044526875019073486,
      "984": 0.0024548321962356567,
      "985": -0.07052204757928848,
      "986": 0.0482720248401165,
      "987": 0.0002065386070171371,
      "988": 0.060792192816734314,
      "989": -0.046860434114933014,
      "990": 0.055240582674741745,
      "991": 0.02518598362803459
    }
  },
  "hiddenLayers": [
    {
      "inputMatrix": {
        "rows": 20,
        "columns": 31,
        "weights": {
          "0": 0.26385965943336487,
          "1": 1.1354844570159912,
          "2": -1.443222999572754,
          "3": 1.418283462524414,
          "4": 0.11911764740943909,
          "5": -2.1365180015563965,
          "6": -0.0932082012295723,
          "7": 1.3242647647857666,
          "8": 1.1326394081115723,
          "9": -0.6858021020889282,
          "10": 2.1452126502990723,
          "11": 0.6087292432785034,
          "12": -0.1990930587053299,
          "13": 1.6608078479766846,
          "14": -0.788540780544281,
          "15": 0.7048982381820679,
          "16": 0.6956338286399841,
          "17": 0.6040471196174622,
          "18": -0.11909584701061249,
          "19": -0.7258694171905518,
          "20": 0.2780894637107849,
          "21": 0.2535504102706909,
          "22": 0.30201923847198486,
          "23": 2.515129566192627,
          "24": -0.5819161534309387,
          "25": 3.3365581035614014,
          "26": -1.4518518447875977,
          "27": -1.8246276378631592,
          "28": -0.20426124334335327,
          "29": -1.310858130455017,
          "30": -1.741813063621521,
          "31": -2.661141872406006,
          "32": -0.18791106343269348,
          "33": -1.033724308013916,
          "34": -0.5151835083961487,
          "35": -0.6258065700531006,
          "36": -1.6860966682434082,
          "37": 1.0407699346542358,
          "38": 1.7268826961517334,
          "39": -0.5381179451942444,
          "40": 0.8646271824836731,
          "41": 1.5165797472000122,
          "42": 0.4147873818874359,
          "43": 1.8163824081420898,
          "44": -0.47498297691345215,
          "45": -0.07608313858509064,
          "46": -0.3652108609676361,
          "47": -2.0410165786743164,
          "48": -2.5841526985168457,
          "49": 1.1855870485305786,
          "50": -1.1252541542053223,
          "51": -0.12050145119428635,
          "52": -0.4378231167793274,
          "53": -1.393368124961853,
          "54": 1.1993811130523682,
          "55": -2.354139804840088,
          "56": 1.8389642238616943,
          "57": 1.8461782932281494,
          "58": -1.0483157634735107,
          "59": 1.3587976694107056,
          "60": -0.05959457904100418,
          "61": -0.7427814602851868,
          "62": 0.5831015706062317,
          "63": -2.752819061279297,
          "64": -0.10784755647182465,
          "65": 0.349617600440979,
          "66": -1.1240594387054443,
          "67": -0.39543721079826355,
          "68": -0.1579139232635498,
          "69": -1.0019192695617676,
          "70": -2.754889488220215,
          "71": 0.8041813969612122,
          "72": 0.531832754611969,
          "73": 2.336332321166992,
          "74": 0.5213008522987366,
          "75": 0.4924105107784271,
          "76": -0.8839325904846191,
          "77": 2.1399335861206055,
          "78": 0.5525680780410767,
          "79": 1.6380531787872314,
          "80": 3.020479679107666,
          "81": 0.1668422967195511,
          "82": -1.2260583639144897,
          "83": 0.24895964562892914,
          "84": -0.1977003663778305,
          "85": -0.40543133020401,
          "86": -0.874191403388977,
          "87": 0.8844729661941528,
          "88": -0.4271622896194458,
          "89": -2.5019471645355225,
          "90": 0.46109825372695923,
          "91": -1.3422826528549194,
          "92": -0.3213661015033722,
          "93": -0.8630701303482056,
          "94": -1.981649398803711,
          "95": -0.4621417224407196,
          "96": -0.663182258605957,
          "97": 0.4680195152759552,
          "98": 0.5617603063583374,
          "99": -1.112762689590454,
          "100": 1.1782276630401611,
          "101": -1.6467702388763428,
          "102": 0.5747984051704407,
          "103": 0.45262411236763,
          "104": 0.002661795588210225,
          "105": 0.16482995450496674,
          "106": -0.46905648708343506,
          "107": -0.7827854752540588,
          "108": 3.493126630783081,
          "109": -1.045421838760376,
          "110": -2.786355495452881,
          "111": 2.1656436920166016,
          "112": 0.8392435908317566,
          "113": -1.395082950592041,
          "114": -0.9748782515525818,
          "115": 0.4340096712112427,
          "116": 1.1876176595687866,
          "117": 0.6928501129150391,
          "118": -1.2080109119415283,
          "119": 1.166162133216858,
          "120": -1.2018344402313232,
          "121": 7.038115501403809,
          "122": -0.8744322657585144,
          "123": 2.2116613388061523,
          "124": -0.11627466976642609,
          "125": -0.6282522678375244,
          "126": -1.1536329984664917,
          "127": -0.6205880641937256,
          "128": -1.5447111129760742,
          "129": 0.8376641273498535,
          "130": 0.2149554193019867,
          "131": -1.2147499322891235,
          "132": -0.690983772277832,
          "133": 0.027003727853298187,
          "134": -0.27926817536354065,
          "135": 0.4283703565597534,
          "136": 0.26510658860206604,
          "137": -1.0426963567733765,
          "138": -0.05138475447893143,
          "139": 1.024842381477356,
          "140": -1.9591164588928223,
          "141": -0.9959789514541626,
          "142": -0.050221409648656845,
          "143": 0.030137019231915474,
          "144": 0.23287217319011688,
          "145": -0.5653029084205627,
          "146": -0.9781637787818909,
          "147": -0.6338073015213013,
          "148": -0.5987083315849304,
          "149": 0.12515662610530853,
          "150": -0.018281903117895126,
          "151": -1.6243371963500977,
          "152": 0.8449419140815735,
          "153": -1.1484887599945068,
          "154": 0.04498836398124695,
          "155": -2.0277721881866455,
          "156": 0.11515045911073685,
          "157": 0.9130902290344238,
          "158": 0.2204684466123581,
          "159": -1.2114959955215454,
          "160": -0.0580989345908165,
          "161": 0.9513865113258362,
          "162": 0.21894097328186035,
          "163": -0.11031553149223328,
          "164": 2.0957789421081543,
          "165": -0.63579261302948,
          "166": -1.239250898361206,
          "167": 1.2295351028442383,
          "168": -0.5238614678382874,
          "169": -0.3461655080318451,
          "170": 0.0712963342666626,
          "171": -2.3866899013519287,
          "172": -2.7699921131134033,
          "173": 0.8646581768989563,
          "174": -1.06111478805542,
          "175": 2.390376091003418,
          "176": -1.300742745399475,
          "177": -0.10981292277574539,
          "178": -0.3237292766571045,
          "179": -0.22940948605537415,
          "180": -0.7457691431045532,
          "181": 1.2654528617858887,
          "182": 0.23218940198421478,
          "183": 0.0009734307532198727,
          "184": -1.9583498239517212,
          "185": 1.603793740272522,
          "186": -0.2777332365512848,
          "187": -3.7876343727111816,
          "188": -0.20963245630264282,
          "189": 0.7980198264122009,
          "190": -0.622738242149353,
          "191": 1.1550791263580322,
          "192": 0.14469324052333832,
          "193": 0.672120988368988,
          "194": -0.8632418513298035,
          "195": -0.39091119170188904,
          "196": -0.11238694190979004,
          "197": 3.287472724914551,
          "198": -0.061198458075523376,
          "199": -1.5479942560195923,
          "200": -1.6729178428649902,
          "201": 2.6153225898742676,
          "202": -0.3482663035392761,
          "203": 0.41179370880126953,
          "204": -0.7127501368522644,
          "205": 2.2407028675079346,
          "206": -1.0073699951171875,
          "207": -0.42606598138809204,
          "208": 0.0012374422512948513,
          "209": -0.463901162147522,
          "210": -0.4649372398853302,
          "211": 0.3329770267009735,
          "212": 1.1819024085998535,
          "213": -3.4307355880737305,
          "214": 2.224964141845703,
          "215": 0.8054584264755249,
          "216": 0.24011628329753876,
          "217": -0.1231740191578865,
          "218": -1.655713438987732,
          "219": -1.6053208112716675,
          "220": 1.2032034397125244,
          "221": -1.099392056465149,
          "222": -0.6593616008758545,
          "223": -0.8962105512619019,
          "224": 0.31226927042007446,
          "225": -2.061007022857666,
          "226": 3.2491536140441895,
          "227": 0.6520912647247314,
          "228": 2.1145904064178467,
          "229": 1.861952304840088,
          "230": -0.9373195171356201,
          "231": -0.8756118416786194,
          "232": 0.2418411672115326,
          "233": -0.8428769111633301,
          "234": -0.48986029624938965,
          "235": -0.5432189106941223,
          "236": 0.07284372299909592,
          "237": -0.013940202072262764,
          "238": -1.104505181312561,
          "239": -0.026698105037212372,
          "240": 0.40482044219970703,
          "241": 0.6952972412109375,
          "242": 0.3788411319255829,
          "243": 0.820737898349762,
          "244": -1.748370885848999,
          "245": 0.4013614356517792,
          "246": -2.1382861137390137,
          "247": 0.3449740707874298,
          "248": 0.886006236076355,
          "249": 0.7148767709732056,
          "250": -1.3916852474212646,
          "251": -1.5837314128875732,
          "252": 1.7085812091827393,
          "253": 1.7442901134490967,
          "254": 1.9471898078918457,
          "255": 1.36424720287323,
          "256": 0.3935353457927704,
          "257": -0.14183151721954346,
          "258": 2.0940730571746826,
          "259": 0.06627517193555832,
          "260": -0.7788102626800537,
          "261": 0.03806257247924805,
          "262": -0.5353820323944092,
          "263": 0.5249851942062378,
          "264": 3.184159994125366,
          "265": 1.0015665292739868,
          "266": 0.45287758111953735,
          "267": -0.2973549962043762,
          "268": -1.2885862588882446,
          "269": 2.657485008239746,
          "270": -0.24569247663021088,
          "271": 1.7893896102905273,
          "272": 0.13983777165412903,
          "273": -0.18593734502792358,
          "274": -1.8115971088409424,
          "275": 0.6479605436325073,
          "276": 0.11889806389808655,
          "277": 0.21419945359230042,
          "278": -0.4484129846096039,
          "279": 0.5751116275787354,
          "280": -0.7053043246269226,
          "281": 1.0044463872909546,
          "282": -0.7807660698890686,
          "283": -0.056697942316532135,
          "284": 1.1213148832321167,
          "285": -1.4959689378738403,
          "286": 0.796377420425415,
          "287": 1.3551381826400757,
          "288": -0.0034554488956928253,
          "289": 1.3732702732086182,
          "290": 0.6532773375511169,
          "291": 0.5703486204147339,
          "292": -1.4625605344772339,
          "293": -1.0490955114364624,
          "294": -1.0231752395629883,
          "295": -0.29177042841911316,
          "296": 0.16301631927490234,
          "297": 2.085172414779663,
          "298": 0.2640753388404846,
          "299": 0.7472261190414429,
          "300": 0.019095033407211304,
          "301": -1.467167854309082,
          "302": 1.4874590635299683,
          "303": -3.8635129928588867,
          "304": 2.0020642280578613,
          "305": -0.3444359004497528,
          "306": 1.3364161252975464,
          "307": 0.21696096658706665,
          "308": -1.35572350025177,
          "309": 0.09168639779090881,
          "310": -0.052923534065485,
          "311": -2.326619863510132,
          "312": -2.43434739112854,
          "313": 0.9788133502006531,
          "314": -0.7352752685546875,
          "315": 0.29098939895629883,
          "316": -1.307180404663086,
          "317": -0.6937081813812256,
          "318": -2.659172534942627,
          "319": 1.265404224395752,
          "320": -0.5404589176177979,
          "321": 2.8359360694885254,
          "322": 1.203061819076538,
          "323": -0.21772198379039764,
          "324": -2.6465904712677,
          "325": 2.6326704025268555,
          "326": 0.9257302284240723,
          "327": 2.507216215133667,
          "328": -0.0988076776266098,
          "329": 2.64957332611084,
          "330": -0.29237908124923706,
          "331": -0.23588237166404724,
          "332": -0.6357841491699219,
          "333": -0.6232540011405945,
          "334": -2.116163969039917,
          "335": 0.9532341361045837,
          "336": 1.0650053024291992,
          "337": -2.007122039794922,
          "338": -0.9841176867485046,
          "339": -0.3976901173591614,
          "340": -0.8239808678627014,
          "341": -2.801089286804199,
          "342": 0.42576152086257935,
          "343": 0.411236435174942,
          "344": 0.5689435005187988,
          "345": -1.946063756942749,
          "346": -0.445505291223526,
          "347": -0.27873414754867554,
          "348": -0.41088607907295227,
          "349": 0.900680422782898,
          "350": 1.2293117046356201,
          "351": -0.4244794249534607,
          "352": 0.03347596898674965,
          "353": 0.45070555806159973,
          "354": -1.1683772802352905,
          "355": -0.12227199226617813,
          "356": 1.0983600616455078,
          "357": -2.7773232460021973,
          "358": -2.8447537422180176,
          "359": 1.21229887008667,
          "360": -0.005878998897969723,
          "361": 1.715014934539795,
          "362": -1.2240322828292847,
          "363": -0.4834071397781372,
          "364": -1.569118618965149,
          "365": 0.06380234658718109,
          "366": -0.36162105202674866,
          "367": 1.4346603155136108,
          "368": 0.31674498319625854,
          "369": 0.5925472974777222,
          "370": -0.4328533113002777,
          "371": 0.7839995622634888,
          "372": 0.3086947202682495,
          "373": -0.7143892645835876,
          "374": -2.079458713531494,
          "375": -0.5167797207832336,
          "376": -2.287973642349243,
          "377": 1.3692172765731812,
          "378": -1.6094056367874146,
          "379": -0.6170521974563599,
          "380": 0.7021097540855408,
          "381": 2.33074951171875,
          "382": 0.15910066664218903,
          "383": -0.12997671961784363,
          "384": 3.136538505554199,
          "385": -1.4954102039337158,
          "386": -0.14581727981567383,
          "387": 1.376139760017395,
          "388": -2.1855318546295166,
          "389": -1.4720213413238525,
          "390": 1.619489073753357,
          "391": 0.3132515847682953,
          "392": -0.3302324116230011,
          "393": -2.2969985008239746,
          "394": -1.0047249794006348,
          "395": -0.308225154876709,
          "396": -0.7430399060249329,
          "397": 0.5779672265052795,
          "398": 1.5315873622894287,
          "399": -0.8775113821029663,
          "400": 0.8103027939796448,
          "401": -0.8733447790145874,
          "402": 0.5278054475784302,
          "403": 1.9078272581100464,
          "404": -0.745550811290741,
          "405": -1.5977349281311035,
          "406": -0.9212158918380737,
          "407": -1.7615314722061157,
          "408": 1.1105884313583374,
          "409": 2.6233677864074707,
          "410": -2.2761335372924805,
          "411": -0.058263517916202545,
          "412": 0.6308226585388184,
          "413": -0.37581735849380493,
          "414": -0.5691986083984375,
          "415": 2.010756254196167,
          "416": 0.08158358186483383,
          "417": -0.8791994452476501,
          "418": 1.3617591857910156,
          "419": 0.3936404287815094,
          "420": -1.2129679918289185,
          "421": -0.50296550989151,
          "422": -0.35494086146354675,
          "423": -0.9344765543937683,
          "424": -2.831077814102173,
          "425": -2.1199703216552734,
          "426": -1.773291826248169,
          "427": 0.3821261525154114,
          "428": -1.5620160102844238,
          "429": 2.930642604827881,
          "430": -1.8120211362838745,
          "431": -1.4993220567703247,
          "432": -0.1509781926870346,
          "433": -0.2852451801300049,
          "434": 0.41557279229164124,
          "435": 1.8426460027694702,
          "436": 0.7153404951095581,
          "437": 1.358460545539856,
          "438": 0.9707881808280945,
          "439": 0.3029116690158844,
          "440": -0.8739488124847412,
          "441": -1.233066201210022,
          "442": 1.0969420671463013,
          "443": -1.0024625062942505,
          "444": -2.109936237335205,
          "445": -0.8531455397605896,
          "446": -1.79673171043396,
          "447": 0.49034205079078674,
          "448": 0.27031946182250977,
          "449": -0.7711736559867859,
          "450": -0.2772139608860016,
          "451": -3.029799222946167,
          "452": -0.03964940831065178,
          "453": -0.11756021529436111,
          "454": 0.9037055969238281,
          "455": 1.3115588426589966,
          "456": 0.4063943028450012,
          "457": 0.08114992082118988,
          "458": 3.916130542755127,
          "459": -3.578392267227173,
          "460": -1.4211794137954712,
          "461": 1.7684050798416138,
          "462": -0.46851858496665955,
          "463": -0.502479076385498,
          "464": 1.3103710412979126,
          "465": 0.21296797692775726,
          "466": -1.1577320098876953,
          "467": 0.09865613281726837,
          "468": -0.9124341011047363,
          "469": 0.3341563940048218,
          "470": -1.1684143543243408,
          "471": -0.37281879782676697,
          "472": 0.8420653343200684,
          "473": -0.4650718569755554,
          "474": 0.07398512214422226,
          "475": 1.3868107795715332,
          "476": -0.42965883016586304,
          "477": 0.6470046043395996,
          "478": 2.4078481197357178,
          "479": 0.07433968782424927,
          "480": -1.6947728395462036,
          "481": 3.1401636600494385,
          "482": 2.8732616901397705,
          "483": -1.93351149559021,
          "484": -1.0718804597854614,
          "485": -1.9417208433151245,
          "486": 0.4832952618598938,
          "487": 1.1666901111602783,
          "488": 3.365799903869629,
          "489": -0.04642749950289726,
          "490": 0.9549012780189514,
          "491": -0.3386671245098114,
          "492": -1.3362631797790527,
          "493": -0.9571629762649536,
          "494": 0.09925449639558792,
          "495": -1.1137593984603882,
          "496": -2.1117866039276123,
          "497": 0.12426158785820007,
          "498": 2.1110477447509766,
          "499": 4.484829902648926,
          "500": 0.286967009305954,
          "501": -2.451502561569214,
          "502": 1.880918264389038,
          "503": -0.5438187122344971,
          "504": -2.3149116039276123,
          "505": -0.8914862871170044,
          "506": -1.034342885017395,
          "507": 1.506608486175537,
          "508": -1.000890851020813,
          "509": 1.5244019031524658,
          "510": -3.7052605152130127,
          "511": 1.481894612312317,
          "512": -1.1354694366455078,
          "513": -0.20893527567386627,
          "514": 0.1099800318479538,
          "515": -0.2520510256290436,
          "516": -1.9621546268463135,
          "517": -0.2518714666366577,
          "518": 1.8187192678451538,
          "519": -0.3798254132270813,
          "520": 0.9199733138084412,
          "521": -0.7996844053268433,
          "522": 0.13841445744037628,
          "523": 0.30963656306266785,
          "524": 0.4968307614326477,
          "525": -0.24893052875995636,
          "526": 2.6328015327453613,
          "527": -0.29554301500320435,
          "528": -2.1272239685058594,
          "529": -2.941662311553955,
          "530": 0.3069705069065094,
          "531": -1.579146385192871,
          "532": -0.17290125787258148,
          "533": -0.566616952419281,
          "534": 0.6711141467094421,
          "535": 1.283870816230774,
          "536": 0.3173474669456482,
          "537": 1.2056339979171753,
          "538": 0.08658909797668457,
          "539": 1.599902629852295,
          "540": 0.06646154820919037,
          "541": -0.6174503564834595,
          "542": 0.6909317970275879,
          "543": -1.50564444065094,
          "544": -0.47183728218078613,
          "545": 0.39912453293800354,
          "546": 0.9950668811798096,
          "547": 1.089561939239502,
          "548": -1.517498254776001,
          "549": -0.2323540896177292,
          "550": 2.6161117553710938,
          "551": -2.9173052310943604,
          "552": 1.515092372894287,
          "553": 1.0819032192230225,
          "554": -0.8671559691429138,
          "555": 0.5828559398651123,
          "556": 0.33768579363822937,
          "557": -0.19591177999973297,
          "558": 3.364271402359009,
          "559": 2.144787311553955,
          "560": 0.2828543484210968,
          "561": -1.181945562362671,
          "562": 0.5711284875869751,
          "563": 0.7370853424072266,
          "564": 0.8009556531906128,
          "565": 0.6172617673873901,
          "566": 0.8706231117248535,
          "567": 0.4828176200389862,
          "568": 0.03301643952727318,
          "569": -0.8158625364303589,
          "570": -1.5200726985931396,
          "571": -0.5558233857154846,
          "572": 2.692479372024536,
          "573": -2.059450387954712,
          "574": 1.2436785697937012,
          "575": -1.1196691989898682,
          "576": 0.8360939621925354,
          "577": -2.1330277919769287,
          "578": -0.8636093735694885,
          "579": 0.778802216053009,
          "580": -1.070245623588562,
          "581": 0.45925039052963257,
          "582": 1.560107946395874,
          "583": -1.542419672012329,
          "584": -1.5430101156234741,
          "585": 2.032198905944824,
          "586": -2.5328941345214844,
          "587": 1.0626837015151978,
          "588": 0.12286463379859924,
          "589": -4.137755870819092,
          "590": -0.047090936452150345,
          "591": 1.4870870113372803,
          "592": 1.0711514949798584,
          "593": -1.9487985372543335,
          "594": 0.42653000354766846,
          "595": -1.5381361246109009,
          "596": -0.8737564086914062,
          "597": 0.7515698671340942,
          "598": 1.8762171268463135,
          "599": -1.5984991788864136,
          "600": -0.028206564486026764,
          "601": 1.770313024520874,
          "602": -0.6686286926269531,
          "603": -0.5046762228012085,
          "604": 0.8410762548446655,
          "605": -3.642556667327881,
          "606": -2.3423807621002197,
          "607": 1.1363345384597778,
          "608": -0.568510115146637,
          "609": 1.5931456089019775,
          "610": -1.7123618125915527,
          "611": -0.8022474646568298,
          "612": -1.0900274515151978,
          "613": -0.19860541820526123,
          "614": -0.13661299645900726,
          "615": 2.1258065700531006,
          "616": -0.01023785024881363,
          "617": -0.31352707743644714,
          "618": -2.2696657180786133,
          "619": 2.627385139465332
        }
      },
      "inputHidden": {
        "rows": 20,
        "columns": 20,
        "weights": {
          "0": 1.4152294397354126,
          "1": -2.8062288761138916,
          "2": -0.6381901502609253,
          "3": -1.2424380779266357,
          "4": -1.109740138053894,
          "5": 0.5401427745819092,
          "6": -0.2957581579685211,
          "7": -0.5337852835655212,
          "8": 1.4135079383850098,
          "9": -0.23093903064727783,
          "10": -0.7098776698112488,
          "11": -1.5151562690734863,
          "12": -1.6358072757720947,
          "13": 1.9465018510818481,
          "14": -0.41450151801109314,
          "15": -0.5013912320137024,
          "16": 0.4482513666152954,
          "17": -1.5268514156341553,
          "18": -0.6074055433273315,
          "19": 0.15074069797992706,
          "20": -0.5913980007171631,
          "21": -0.9982587695121765,
          "22": -0.800093948841095,
          "23": 1.1675760746002197,
          "24": -0.9271609783172607,
          "25": -0.45447784662246704,
          "26": -1.4871268272399902,
          "27": 1.1884204149246216,
          "28": 0.9297611713409424,
          "29": -0.8851112127304077,
          "30": 2.0493385791778564,
          "31": -3.0557336807250977,
          "32": -2.6516242027282715,
          "33": 0.9682632684707642,
          "34": -1.3937435150146484,
          "35": 2.372573137283325,
          "36": 0.8842137455940247,
          "37": 1.4387882947921753,
          "38": 2.6114771366119385,
          "39": 1.36439847946167,
          "40": 1.4572747945785522,
          "41": -1.3704050779342651,
          "42": -1.3621668815612793,
          "43": -1.448236107826233,
          "44": -3.7665812969207764,
          "45": -1.5870789289474487,
          "46": -1.392383337020874,
          "47": 1.5006625652313232,
          "48": 0.7525919079780579,
          "49": -0.46971437335014343,
          "50": 2.459704637527466,
          "51": 0.5468534827232361,
          "52": -2.4411234855651855,
          "53": 4.209677696228027,
          "54": 1.0920915603637695,
          "55": -1.1662715673446655,
          "56": 0.6742662787437439,
          "57": -1.3308672904968262,
          "58": 2.2079110145568848,
          "59": -1.3353427648544312,
          "60": -1.3242288827896118,
          "61": -1.9883649349212646,
          "62": 0.8878942131996155,
          "63": 0.8968108296394348,
          "64": 0.8422439694404602,
          "65": 0.0933622419834137,
          "66": 4.73201322555542,
          "67": -0.5720605850219727,
          "68": -0.8916125297546387,
          "69": -2.5909132957458496,
          "70": -2.661107301712036,
          "71": 0.9119730591773987,
          "72": -0.08897800743579865,
          "73": -1.4906541109085083,
          "74": 1.4889395236968994,
          "75": 0.02104673907160759,
          "76": 0.3834856450557709,
          "77": 2.169313669204712,
          "78": -0.7526304721832275,
          "79": -0.9582464098930359,
          "80": 0.8148362040519714,
          "81": 0.14638318121433258,
          "82": 1.2465132474899292,
          "83": 1.0807253122329712,
          "84": 0.25537335872650146,
          "85": -1.5750528573989868,
          "86": -1.3344707489013672,
          "87": 0.8797317147254944,
          "88": -1.8284696340560913,
          "89": -0.40542885661125183,
          "90": 5.979587554931641,
          "91": 4.798820972442627,
          "92": -2.926473379135132,
          "93": 1.4142093658447266,
          "94": -2.6707699298858643,
          "95": 0.42978087067604065,
          "96": 1.0358359813690186,
          "97": -1.2629281282424927,
          "98": 2.7945127487182617,
          "99": 2.0847299098968506,
          "100": -0.008223451673984528,
          "101": 1.368981122970581,
          "102": 0.5786897540092468,
          "103": -3.298328161239624,
          "104": -0.31085479259490967,
          "105": 0.6433835029602051,
          "106": -0.08241511136293411,
          "107": 0.1542348861694336,
          "108": -0.2719308137893677,
          "109": 0.9788484573364258,
          "110": -1.0176359415054321,
          "111": -0.6040517687797546,
          "112": 0.12317609786987305,
          "113": -0.5982939600944519,
          "114": -0.5884052515029907,
          "115": -0.8576035499572754,
          "116": 1.064515233039856,
          "117": -0.5869144201278687,
          "118": -1.7492871284484863,
          "119": 0.4644269049167633,
          "120": 2.8012924194335938,
          "121": 0.1594758927822113,
          "122": 1.3416739702224731,
          "123": 0.7204816341400146,
          "124": -2.7713944911956787,
          "125": -0.16849671304225922,
          "126": -0.41633930802345276,
          "127": -0.5136541724205017,
          "128": -1.0301021337509155,
          "129": 0.687056303024292,
          "130": 0.9456455111503601,
          "131": -1.385629653930664,
          "132": -2.082285165786743,
          "133": 1.3876322507858276,
          "134": 0.7268522381782532,
          "135": -2.447812795639038,
          "136": -1.7806094884872437,
          "137": -1.2006471157073975,
          "138": 0.34486547112464905,
          "139": 0.36950036883354187,
          "140": 2.1781935691833496,
          "141": -2.4276187419891357,
          "142": 0.7876634001731873,
          "143": 1.0078123807907104,
          "144": -1.7014833688735962,
          "145": -1.7286555767059326,
          "146": -0.5224186778068542,
          "147": -0.5233801603317261,
          "148": 2.109828472137451,
          "149": -1.529468297958374,
          "150": -4.483141899108887,
          "151": 2.556783437728882,
          "152": -3.6353912353515625,
          "153": 2.470888376235962,
          "154": 0.023617956787347794,
          "155": -0.3501959443092346,
          "156": 0.5717483162879944,
          "157": 0.14330412447452545,
          "158": -0.70895916223526,
          "159": 1.021460771560669,
          "160": -0.782854437828064,
          "161": 0.32068192958831787,
          "162": -1.8858331441879272,
          "163": 4.410825729370117,
          "164": 2.8376975059509277,
          "165": 0.6474336981773376,
          "166": 1.472245216369629,
          "167": 0.6503332257270813,
          "168": -0.9250897765159607,
          "169": 2.826141357421875,
          "170": 0.6233574748039246,
          "171": 0.5805598497390747,
          "172": 2.852140188217163,
          "173": -1.7507380247116089,
          "174": -3.303852081298828,
          "175": -1.5949113368988037,
          "176": -1.0491187572479248,
          "177": 0.960260808467865,
          "178": 2.648204803466797,
          "179": 2.7307443618774414,
          "180": 3.67968487739563,
          "181": -2.62410044670105,
          "182": -2.3198750019073486,
          "183": -1.606540560722351,
          "184": -0.2575113773345947,
          "185": -2.033109188079834,
          "186": -1.7658389806747437,
          "187": -0.7162138223648071,
          "188": 1.2588130235671997,
          "189": 3.344860792160034,
          "190": 0.33845680952072144,
          "191": 0.7535548806190491,
          "192": -0.5012297630310059,
          "193": 2.946864604949951,
          "194": 0.9249300956726074,
          "195": 1.0969905853271484,
          "196": -0.348020076751709,
          "197": -1.8291279077529907,
          "198": 1.8965810537338257,
          "199": 0.9050313234329224,
          "200": 1.4439445734024048,
          "201": -4.097675800323486,
          "202": 1.7934225797653198,
          "203": -1.9420701265335083,
          "204": -1.1070137023925781,
          "205": 1.080550193786621,
          "206": 1.0782800912857056,
          "207": -0.9390890002250671,
          "208": -2.0212230682373047,
          "209": 0.18640738725662231,
          "210": 3.4141297340393066,
          "211": -0.8154920935630798,
          "212": 1.4702297449111938,
          "213": 1.2825095653533936,
          "214": 2.3352394104003906,
          "215": -0.9167466759681702,
          "216": -1.2805489301681519,
          "217": -1.1537662744522095,
          "218": -1.4260282516479492,
          "219": -3.416032314300537,
          "220": 3.9989571571350098,
          "221": -2.2216811180114746,
          "222": 0.36117643117904663,
          "223": -2.4514176845550537,
          "224": -1.0597583055496216,
          "225": 2.615612745285034,
          "226": -2.374073028564453,
          "227": -3.410923957824707,
          "228": 1.3169395923614502,
          "229": 3.3807461261749268,
          "230": 0.9445371031761169,
          "231": -1.6710996627807617,
          "232": -3.292694568634033,
          "233": 1.7280240058898926,
          "234": 1.053951382637024,
          "235": -2.2995593547821045,
          "236": -2.032536268234253,
          "237": -3.741058588027954,
          "238": 1.075888991355896,
          "239": -0.6644359230995178,
          "240": -4.040505886077881,
          "241": 4.377821445465088,
          "242": 2.6434030532836914,
          "243": 3.3761894702911377,
          "244": 0.3125920593738556,
          "245": 2.617076873779297,
          "246": -1.299170732498169,
          "247": 2.1158952713012695,
          "248": -1.6478121280670166,
          "249": -1.8961471319198608,
          "250": 1.2984020709991455,
          "251": -1.982399344444275,
          "252": 2.162877321243286,
          "253": -2.457404136657715,
          "254": 1.8928968906402588,
          "255": 0.8877700567245483,
          "256": 1.471397042274475,
          "257": 4.032476425170898,
          "258": -2.144662857055664,
          "259": -2.2237632274627686,
          "260": 1.2297859191894531,
          "261": -1.9394913911819458,
          "262": 0.7917594909667969,
          "263": -0.027304871007800102,
          "264": -1.097430944442749,
          "265": 0.7105417251586914,
          "266": -0.5393858551979065,
          "267": 0.6190247535705566,
          "268": -0.18975844979286194,
          "269": 0.7895215153694153,
          "270": -0.41444921493530273,
          "271": 1.0313701629638672,
          "272": -0.8316066265106201,
          "273": 1.0357425212860107,
          "274": 1.2823097705841064,
          "275": -1.1358435153961182,
          "276": -0.7378714084625244,
          "277": -0.9006415605545044,
          "278": 0.0012659910134971142,
          "279": -0.6180837154388428,
          "280": 1.5232445001602173,
          "281": 3.4531679153442383,
          "282": -0.6523706316947937,
          "283": 0.8638242483139038,
          "284": -0.3870353400707245,
          "285": -0.38026532530784607,
          "286": 2.1390933990478516,
          "287": 2.950650453567505,
          "288": -2.1579885482788086,
          "289": -2.980804443359375,
          "290": -1.3457192182540894,
          "291": -1.6486773490905762,
          "292": 1.305775761604309,
          "293": -3.038607358932495,
          "294": 1.1029870510101318,
          "295": 2.3182871341705322,
          "296": 2.0080206394195557,
          "297": 2.459369659423828,
          "298": 1.261462688446045,
          "299": -0.06128012388944626,
          "300": -0.45778724551200867,
          "301": -2.65114164352417,
          "302": -0.8816753625869751,
          "303": -1.5573476552963257,
          "304": 2.3176491260528564,
          "305": 0.2737046778202057,
          "306": 1.077102541923523,
          "307": 0.4094991981983185,
          "308": -0.14189212024211884,
          "309": -0.5070597529411316,
          "310": 0.48930105566978455,
          "311": 3.0955357551574707,
          "312": 1.3373547792434692,
          "313": -0.015211181715130806,
          "314": -2.0724663734436035,
          "315": 2.804525375366211,
          "316": 1.751274585723877,
          "317": -0.7543931603431702,
          "318": 1.5487242937088013,
          "319": 1.583518147468567,
          "320": 0.9447270035743713,
          "321": 0.5316410660743713,
          "322": 1.429677963256836,
          "323": -0.7618445754051208,
          "324": -0.3969185948371887,
          "325": 0.7360396385192871,
          "326": -0.10731495916843414,
          "327": -2.0235257148742676,
          "328": -0.8744727373123169,
          "329": 1.0780893564224243,
          "330": 0.1660420000553131,
          "331": -0.5164202451705933,
          "332": -1.1348309516906738,
          "333": 0.9970837831497192,
          "334": 3.4659039974212646,
          "335": -3.1472361087799072,
          "336": -2.1050732135772705,
          "337": -1.3797467947006226,
          "338": -0.9019171595573425,
          "339": -0.37994447350502014,
          "340": -1.2075902223587036,
          "341": -3.567108631134033,
          "342": 0.39907196164131165,
          "343": 2.991567850112915,
          "344": -4.061750888824463,
          "345": 0.568243682384491,
          "346": -2.716684579849243,
          "347": 2.025197982788086,
          "348": -2.0355000495910645,
          "349": -0.4037061631679535,
          "350": 3.5718698501586914,
          "351": 0.5355652570724487,
          "352": -2.3932015895843506,
          "353": 1.1514573097229004,
          "354": 1.1926933526992798,
          "355": -1.4721883535385132,
          "356": 0.7818804979324341,
          "357": 2.465879440307617,
          "358": -2.1006436347961426,
          "359": -5.753747463226318,
          "360": -0.7850818634033203,
          "361": 0.6880027055740356,
          "362": -1.0942187309265137,
          "363": 0.02478901669383049,
          "364": 2.5680909156799316,
          "365": -1.2532347440719604,
          "366": 2.294456720352173,
          "367": -1.0691678524017334,
          "368": 2.3343303203582764,
          "369": 2.1483569145202637,
          "370": -1.9874067306518555,
          "371": 0.42076945304870605,
          "372": 3.590397596359253,
          "373": -2.44785475730896,
          "374": -0.8309892416000366,
          "375": 0.8047065138816833,
          "376": 0.5852745771408081,
          "377": 0.12222059071063995,
          "378": 1.5734188556671143,
          "379": 4.228137969970703,
          "380": -0.7405537962913513,
          "381": -0.21126458048820496,
          "382": -0.37497058510780334,
          "383": -1.055853247642517,
          "384": -0.018001215532422066,
          "385": 1.0598728656768799,
          "386": 0.3936583995819092,
          "387": -0.011677572503685951,
          "388": 0.03895760327577591,
          "389": 0.43085503578186035,
          "390": -1.0404245853424072,
          "391": -0.8514561653137207,
          "392": -1.209017038345337,
          "393": 0.9101793766021729,
          "394": 0.37967032194137573,
          "395": -0.009954512119293213,
          "396": 0.34180039167404175,
          "397": -0.27017366886138916,
          "398": -0.44837766885757446,
          "399": -1.5443660020828247
        }
      },
      "inputBias": {
        "rows": 20,
        "columns": 1,
        "weights": {
          "0": -2.280207872390747,
          "1": -1.6501617431640625,
          "2": -1.2230948209762573,
          "3": -0.7381021976470947,
          "4": 1.441645860671997,
          "5": -0.7416139245033264,
          "6": -1.5444072484970093,
          "7": -0.6346411108970642,
          "8": -0.6433062553405762,
          "9": 0.3426719009876251,
          "10": 0.8190099596977234,
          "11": -1.4809441566467285,
          "12": 0.2883913815021515,
          "13": -1.4784892797470093,
          "14": -0.86601322889328,
          "15": -1.0152599811553955,
          "16": -0.1725160777568817,
          "17": 0.43906885385513306,
          "18": -0.9525001645088196,
          "19": -0.21970398724079132
        }
      },
      "forgetMatrix": {
        "rows": 20,
        "columns": 31,
        "weights": {
          "0": -0.824058473110199,
          "1": 0.37685197591781616,
          "2": -0.44913250207901,
          "3": -0.5226760506629944,
          "4": -1.6059927940368652,
          "5": 0.060279540717601776,
          "6": 0.8202793002128601,
          "7": -0.6878471970558167,
          "8": 0.043254781514406204,
          "9": 0.5249615907669067,
          "10": 0.045611269772052765,
          "11": -0.0031752032227814198,
          "12": 1.0599840879440308,
          "13": -1.10228431224823,
          "14": -1.0869312286376953,
          "15": 0.9597117900848389,
          "16": -1.757211446762085,
          "17": -0.7003783583641052,
          "18": 0.7798963189125061,
          "19": -0.6544704437255859,
          "20": 1.000396728515625,
          "21": -1.1349201202392578,
          "22": -0.8163588643074036,
          "23": -1.0206652879714966,
          "24": -0.9617750644683838,
          "25": -0.7716813683509827,
          "26": 1.1197624206542969,
          "27": -0.8144257068634033,
          "28": 0.501144289970398,
          "29": -0.9525399804115295,
          "30": 2.0283524990081787,
          "31": -1.6086374521255493,
          "32": 1.018323302268982,
          "33": 0.28923651576042175,
          "34": 1.6158387660980225,
          "35": -0.28330856561660767,
          "36": 0.20517002046108246,
          "37": 1.2938376665115356,
          "38": 0.004253806546330452,
          "39": 0.36854004859924316,
          "40": -0.6341705918312073,
          "41": -0.8672472238540649,
          "42": -1.4330148696899414,
          "43": -0.4787212908267975,
          "44": 0.6089600920677185,
          "45": -0.3531654477119446,
          "46": -0.021784503012895584,
          "47": -1.7961496114730835,
          "48": -1.2322945594787598,
          "49": -0.10410600155591965,
          "50": -1.2310843467712402,
          "51": -2.2641849517822266,
          "52": -0.2793475091457367,
          "53": 1.090211033821106,
          "54": -0.1772073656320572,
          "55": 1.8662251234054565,
          "56": -2.0324454307556152,
          "57": 0.7752876877784729,
          "58": -0.54108726978302,
          "59": 0.031307876110076904,
          "60": 0.3164922893047333,
          "61": 1.788944959640503,
          "62": 0.5805869102478027,
          "63": -0.13254226744174957,
          "64": -0.14574140310287476,
          "65": 0.12300046533346176,
          "66": 0.5702638626098633,
          "67": -3.047417163848877,
          "68": -0.7078837156295776,
          "69": 2.7461626529693604,
          "70": 1.3256726264953613,
          "71": 0.6329236030578613,
          "72": 3.7117385864257812,
          "73": 0.21721290051937103,
          "74": 1.1648775339126587,
          "75": 1.737798810005188,
          "76": -0.5174921154975891,
          "77": 1.8140500783920288,
          "78": -0.8573295474052429,
          "79": -1.5162352323532104,
          "80": 2.8503503799438477,
          "81": 0.6180803775787354,
          "82": 2.168879747390747,
          "83": -0.08810768276453018,
          "84": 0.007984899915754795,
          "85": 2.000549554824829,
          "86": -4.29220724105835,
          "87": 2.8158018589019775,
          "88": -1.2491449117660522,
          "89": 0.05803026258945465,
          "90": 2.2637975215911865,
          "91": -0.8809598684310913,
          "92": -0.06481702625751495,
          "93": 1.3231453895568848,
          "94": 0.2615683376789093,
          "95": 1.1356767416000366,
          "96": 0.7981442213058472,
          "97": 0.8155146241188049,
          "98": -0.9956101179122925,
          "99": -2.122354507446289,
          "100": 0.44109317660331726,
          "101": 2.423642635345459,
          "102": -2.630903482437134,
          "103": 0.5719130635261536,
          "104": 0.32129690051078796,
          "105": -0.33494746685028076,
          "106": 0.48268312215805054,
          "107": -0.01002314779907465,
          "108": -0.9957893490791321,
          "109": 1.4462822675704956,
          "110": 1.2023338079452515,
          "111": 1.1821233034133911,
          "112": 0.29548272490501404,
          "113": 0.9629642963409424,
          "114": 1.568709135055542,
          "115": 0.8545280694961548,
          "116": 1.0512888431549072,
          "117": -1.7953442335128784,
          "118": 0.7190250754356384,
          "119": -1.6120421886444092,
          "120": 1.473900556564331,
          "121": -1.1715317964553833,
          "122": -1.0706723928451538,
          "123": -0.4709101617336273,
          "124": 0.24174927175045013,
          "125": -0.3300485610961914,
          "126": -0.5668728351593018,
          "127": -1.4718492031097412,
          "128": -1.3304306268692017,
          "129": 1.083504319190979,
          "130": 0.5570655465126038,
          "131": -1.66677725315094,
          "132": -0.1540139615535736,
          "133": 1.5334813594818115,
          "134": -1.1894426345825195,
          "135": -0.2290237843990326,
          "136": 2.580334424972534,
          "137": -0.4598378539085388,
          "138": 0.5258302092552185,
          "139": 0.5667349100112915,
          "140": -1.7530922889709473,
          "141": -1.536597490310669,
          "142": -0.488666832447052,
          "143": -0.2529885470867157,
          "144": 1.3510829210281372,
          "145": -2.293839454650879,
          "146": -1.9740914106369019,
          "147": -1.4248638153076172,
          "148": -0.2915949523448944,
          "149": -0.5737493634223938,
          "150": 1.483673095703125,
          "151": 0.05516350641846657,
          "152": -0.12925074994564056,
          "153": -0.15275411307811737,
          "154": 1.8818330764770508,
          "155": 0.7417149543762207,
          "156": 2.8826377391815186,
          "157": 2.4010186195373535,
          "158": -1.6247273683547974,
          "159": 0.7715911269187927,
          "160": 1.3475453853607178,
          "161": -0.17949402332305908,
          "162": -0.39977964758872986,
          "163": 0.0725083276629448,
          "164": -2.108025550842285,
          "165": -0.5178747177124023,
          "166": -0.9557161331176758,
          "167": -0.8552749156951904,
          "168": -1.0028326511383057,
          "169": 0.9647915363311768,
          "170": -0.3636327087879181,
          "171": 0.3998463749885559,
          "172": 1.1463875770568848,
          "173": 0.1292610466480255,
          "174": -1.452319860458374,
          "175": -0.5247771739959717,
          "176": 0.8982248902320862,
          "177": -1.0739152431488037,
          "178": 0.486564964056015,
          "179": 0.3390335142612457,
          "180": 0.46659988164901733,
          "181": -0.5575196146965027,
          "182": 0.5770410299301147,
          "183": -0.6544456481933594,
          "184": 0.3943142592906952,
          "185": -1.0491232872009277,
          "186": 1.5997647047042847,
          "187": -0.6451584696769714,
          "188": -0.049420107156038284,
          "189": -0.06197598576545715,
          "190": 0.43826109170913696,
          "191": 1.3377137184143066,
          "192": -1.1069767475128174,
          "193": -0.9989124536514282,
          "194": -0.3098841905593872,
          "195": -1.2478837966918945,
          "196": -2.8138890266418457,
          "197": 1.4040390253067017,
          "198": -1.2917819023132324,
          "199": 1.1891404390335083,
          "200": -0.10504211485385895,
          "201": 0.5591607093811035,
          "202": 1.2441960573196411,
          "203": 1.8383064270019531,
          "204": -1.6124125719070435,
          "205": 0.26373881101608276,
          "206": -0.6317750215530396,
          "207": 0.5930377244949341,
          "208": 0.6311628222465515,
          "209": -0.7540731430053711,
          "210": 1.9386965036392212,
          "211": -0.49014517664909363,
          "212": -0.6249937415122986,
          "213": -0.020122870802879333,
          "214": -1.0745007991790771,
          "215": 0.7737727761268616,
          "216": -0.2950402796268463,
          "217": -0.9362667202949524,
          "218": -0.37175583839416504,
          "219": -2.3856849670410156,
          "220": 0.5737195611000061,
          "221": -1.0641814470291138,
          "222": -1.6143068075180054,
          "223": -2.140697956085205,
          "224": 0.8606404066085815,
          "225": -2.7413806915283203,
          "226": 0.7232201099395752,
          "227": 2.34660005569458,
          "228": 0.9276692271232605,
          "229": 0.9668077826499939,
          "230": 1.1046810150146484,
          "231": -1.1311726570129395,
          "232": -0.4497499167919159,
          "233": -0.23185960948467255,
          "234": -1.211654543876648,
          "235": 1.4870774745941162,
          "236": 1.0397979021072388,
          "237": -0.7931087017059326,
          "238": -0.2200886607170105,
          "239": 1.7150987386703491,
          "240": 2.0801007747650146,
          "241": -2.004962921142578,
          "242": 0.561431348323822,
          "243": 0.3080858886241913,
          "244": -1.272963523864746,
          "245": 1.5325675010681152,
          "246": -2.177866220474243,
          "247": 1.6357805728912354,
          "248": 1.205623984336853,
          "249": -2.3079111576080322,
          "250": 2.6064085960388184,
          "251": 0.8487130999565125,
          "252": 0.09391549974679947,
          "253": -1.8246514797210693,
          "254": -1.4288074970245361,
          "255": 1.630138635635376,
          "256": 0.20193009078502655,
          "257": 0.7275053262710571,
          "258": 1.145710825920105,
          "259": -0.9557881951332092,
          "260": 0.00886807031929493,
          "261": 1.401658296585083,
          "262": 0.6962630748748779,
          "263": -1.1457860469818115,
          "264": -0.15309296548366547,
          "265": 0.36969736218452454,
          "266": -0.18561257421970367,
          "267": 0.5327482223510742,
          "268": 1.1693875789642334,
          "269": 0.3711796700954437,
          "270": 1.002011775970459,
          "271": 1.3499664068222046,
          "272": -2.3269405364990234,
          "273": 1.5885796546936035,
          "274": 0.102147676050663,
          "275": 3.2171576023101807,
          "276": -0.004115992225706577,
          "277": 1.7921398878097534,
          "278": 1.3373702764511108,
          "279": 0.5056725740432739,
          "280": 1.8263550996780396,
          "281": 0.8321982026100159,
          "282": -2.0032312870025635,
          "283": 2.1282315254211426,
          "284": 1.0738234519958496,
          "285": 3.736708402633667,
          "286": 1.1673810482025146,
          "287": -0.6111469864845276,
          "288": -0.3599446713924408,
          "289": -0.11859427392482758,
          "290": -0.1524842530488968,
          "291": -1.2925066947937012,
          "292": -1.7801636457443237,
          "293": 1.0337674617767334,
          "294": -0.16516004502773285,
          "295": 0.878753662109375,
          "296": -1.2386829853057861,
          "297": 0.44556206464767456,
          "298": -1.0799881219863892,
          "299": -1.014746904373169,
          "300": 1.352673888206482,
          "301": -1.5497546195983887,
          "302": -1.2942566871643066,
          "303": 2.077827215194702,
          "304": -1.7507028579711914,
          "305": -0.9923180937767029,
          "306": -0.157627135515213,
          "307": 0.34753450751304626,
          "308": 1.6234091520309448,
          "309": -1.3402537107467651,
          "310": 0.04458162188529968,
          "311": -1.5324349403381348,
          "312": 2.7015209197998047,
          "313": -0.3931417763233185,
          "314": 0.0825662687420845,
          "315": 0.699462890625,
          "316": 0.709092378616333,
          "317": 2.0539283752441406,
          "318": -0.856408953666687,
          "319": -0.08895514905452728,
          "320": 1.648447036743164,
          "321": 1.1543534994125366,
          "322": -0.49443522095680237,
          "323": -0.5831626057624817,
          "324": 0.12198860198259354,
          "325": 0.2800278663635254,
          "326": 0.8822387456893921,
          "327": 0.19029298424720764,
          "328": 2.9661757946014404,
          "329": 0.1778288334608078,
          "330": -0.21483764052391052,
          "331": 0.19905637204647064,
          "332": -0.046869587153196335,
          "333": 2.638828754425049,
          "334": -2.011061191558838,
          "335": 0.8134570717811584,
          "336": 0.20776182413101196,
          "337": -0.9477701783180237,
          "338": 2.2679672241210938,
          "339": -1.4976780414581299,
          "340": 0.6390714049339294,
          "341": -0.533449113368988,
          "342": -0.3389798104763031,
          "343": 0.11704730987548828,
          "344": 1.7126047611236572,
          "345": -1.6548066139221191,
          "346": -3.17344331741333,
          "347": -2.4173929691314697,
          "348": 1.823360800743103,
          "349": 0.07876435667276382,
          "350": 1.4744548797607422,
          "351": 1.993016242980957,
          "352": -0.5617093443870544,
          "353": 1.1556061506271362,
          "354": 1.0479177236557007,
          "355": -0.586149275302887,
          "356": -0.7359403371810913,
          "357": -0.5219163298606873,
          "358": 0.7406293749809265,
          "359": -0.15183477103710175,
          "360": -0.4995688199996948,
          "361": 0.9155440926551819,
          "362": -0.9866794347763062,
          "363": 1.6346254348754883,
          "364": 0.9743881225585938,
          "365": -1.4892592430114746,
          "366": 1.8454934358596802,
          "367": 1.4356555938720703,
          "368": -0.026697082445025444,
          "369": 0.16618001461029053,
          "370": -0.24786074459552765,
          "371": 0.4428054094314575,
          "372": 0.707181453704834,
          "373": 1.3216135501861572,
          "374": 1.0098464488983154,
          "375": -1.0525236129760742,
          "376": 0.045353371649980545,
          "377": 2.7869362831115723,
          "378": 1.5046470165252686,
          "379": -2.4173338413238525,
          "380": -0.9740684628486633,
          "381": -1.3626506328582764,
          "382": -2.6063106060028076,
          "383": 0.897775411605835,
          "384": -0.6760086417198181,
          "385": -1.516252875328064,
          "386": 1.014764428138733,
          "387": -0.10927325487136841,
          "388": -0.05290288105607033,
          "389": -0.008949202485382557,
          "390": -1.2441216707229614,
          "391": -0.31526827812194824,
          "392": -1.7587369680404663,
          "393": 0.3650396764278412,
          "394": -1.730499505996704,
          "395": -2.9458775520324707,
          "396": 2.7847466468811035,
          "397": -4.42248010635376,
          "398": 1.048087477684021,
          "399": -0.1960359364748001,
          "400": -1.9444795846939087,
          "401": 0.7422084808349609,
          "402": 0.24191325902938843,
          "403": -1.7290829420089722,
          "404": 0.9034766554832458,
          "405": -0.4875808656215668,
          "406": -0.7294398546218872,
          "407": -0.3930146396160126,
          "408": 0.3520819842815399,
          "409": 0.9951373934745789,
          "410": -0.3675675690174103,
          "411": 0.7884867787361145,
          "412": 1.65286386013031,
          "413": -0.5684853792190552,
          "414": -0.985135555267334,
          "415": 1.6756707429885864,
          "416": 0.14709679782390594,
          "417": 0.8804005980491638,
          "418": -0.5035752654075623,
          "419": -1.1379542350769043,
          "420": -0.7366088032722473,
          "421": -1.1044152975082397,
          "422": -0.8365126252174377,
          "423": 0.8424749970436096,
          "424": -1.2117218971252441,
          "425": -1.057127833366394,
          "426": -0.04635220766067505,
          "427": 0.24374885857105255,
          "428": -0.28586480021476746,
          "429": 1.3715380430221558,
          "430": 0.3710261881351471,
          "431": 0.15593241155147552,
          "432": 0.9742992520332336,
          "433": 0.11428723484277725,
          "434": 0.9729753732681274,
          "435": 2.103825569152832,
          "436": -1.5768239498138428,
          "437": -2.648329019546509,
          "438": -0.6442788243293762,
          "439": 0.6236512064933777,
          "440": 1.9138197898864746,
          "441": -0.6634913086891174,
          "442": 0.0030827131122350693,
          "443": -0.9012961983680725,
          "444": -0.4640597999095917,
          "445": 0.4602991044521332,
          "446": 0.9220699071884155,
          "447": -0.47559577226638794,
          "448": 1.7236710786819458,
          "449": -0.21761806309223175,
          "450": 2.6688404083251953,
          "451": 4.286818027496338,
          "452": -0.4863888919353485,
          "453": 0.5399549007415771,
          "454": -1.1843246221542358,
          "455": 0.27144452929496765,
          "456": -1.982865810394287,
          "457": -0.29264214634895325,
          "458": 0.2444401979446411,
          "459": 1.3210692405700684,
          "460": 0.25244635343551636,
          "461": 0.0960497334599495,
          "462": -1.6294832229614258,
          "463": -0.049222055822610855,
          "464": -3.5305850505828857,
          "465": -2.5502989292144775,
          "466": -0.3531782329082489,
          "467": 0.8367622494697571,
          "468": -1.7000125646591187,
          "469": -1.443973422050476,
          "470": 0.8967158794403076,
          "471": 0.3096388876438141,
          "472": 0.2954314649105072,
          "473": 0.5893970727920532,
          "474": 1.1491366624832153,
          "475": 0.6863721013069153,
          "476": -0.7684856057167053,
          "477": 2.4990932941436768,
          "478": -2.5538697242736816,
          "479": 1.798059344291687,
          "480": -1.9335522651672363,
          "481": -1.6878279447555542,
          "482": -2.1509017944335938,
          "483": -0.5862449407577515,
          "484": -0.576217532157898,
          "485": 2.298618793487549,
          "486": -1.5254312753677368,
          "487": -0.49207502603530884,
          "488": 1.0177600383758545,
          "489": -1.7458219528198242,
          "490": 1.455753207206726,
          "491": 0.9536982178688049,
          "492": -0.8488791584968567,
          "493": 0.5410236120223999,
          "494": -2.5131852626800537,
          "495": -1.5387110710144043,
          "496": -0.2932259738445282,
          "497": 0.20842458307743073,
          "498": 0.07924585789442062,
          "499": -0.44930118322372437,
          "500": -3.687396764755249,
          "501": 0.2759968936443329,
          "502": -0.657402515411377,
          "503": -2.8143224716186523,
          "504": 1.9784852266311646,
          "505": 2.0723273754119873,
          "506": -1.7644294500350952,
          "507": -1.843335509300232,
          "508": 1.1664526462554932,
          "509": 0.23663699626922607,
          "510": -0.23385845124721527,
          "511": -0.2633661925792694,
          "512": -3.8691461086273193,
          "513": 0.5233944058418274,
          "514": -0.6601178646087646,
          "515": -2.301236629486084,
          "516": 0.40321820974349976,
          "517": -0.8695412278175354,
          "518": -0.990464448928833,
          "519": -1.8457579612731934,
          "520": -0.37745895981788635,
          "521": -0.8404291868209839,
          "522": 1.4115644693374634,
          "523": 0.6880666613578796,
          "524": 1.3007603883743286,
          "525": 0.5056673884391785,
          "526": 2.1429460048675537,
          "527": -1.4709993600845337,
          "528": 1.0838032960891724,
          "529": -0.6610459089279175,
          "530": -0.16371694207191467,
          "531": -1.973711609840393,
          "532": 0.5255724191665649,
          "533": -0.24396438896656036,
          "534": 0.8010402321815491,
          "535": 3.71563982963562,
          "536": 1.5414222478866577,
          "537": -0.9557095766067505,
          "538": -2.1322436332702637,
          "539": 1.7168384790420532,
          "540": 0.5525606274604797,
          "541": 0.2307819128036499,
          "542": -0.8089576959609985,
          "543": -0.4790448844432831,
          "544": -0.3122977614402771,
          "545": -2.299285888671875,
          "546": -2.380614995956421,
          "547": 1.5767501592636108,
          "548": -1.600748062133789,
          "549": -0.14665059745311737,
          "550": -0.8337243795394897,
          "551": -0.9684422016143799,
          "552": 0.3860684335231781,
          "553": 1.5933202505111694,
          "554": 0.5020530223846436,
          "555": -0.23222307860851288,
          "556": 0.5141811370849609,
          "557": -0.07395389676094055,
          "558": 0.6143714785575867,
          "559": 0.263757586479187,
          "560": -0.05647530406713486,
          "561": 0.7175891995429993,
          "562": 2.5256423950195312,
          "563": -2.421659469604492,
          "564": 2.6128861904144287,
          "565": 1.6401082277297974,
          "566": -1.0266027450561523,
          "567": -0.13161881268024445,
          "568": 0.8626049160957336,
          "569": 0.2494300752878189,
          "570": -0.29097819328308105,
          "571": 0.7507217526435852,
          "572": 0.8088272213935852,
          "573": -0.805274248123169,
          "574": 2.777541399002075,
          "575": 0.19067999720573425,
          "576": -1.1744831800460815,
          "577": -1.7430742979049683,
          "578": 0.91086745262146,
          "579": 0.3485516905784607,
          "580": 0.5310634970664978,
          "581": 0.699810266494751,
          "582": -0.6559386849403381,
          "583": 1.303428053855896,
          "584": -0.4522876441478729,
          "585": -0.13391800224781036,
          "586": -2.276477098464966,
          "587": 0.3515535295009613,
          "588": -1.1663542985916138,
          "589": 0.19580505788326263,
          "590": 1.6805192232131958,
          "591": -0.8534280061721802,
          "592": 1.3310614824295044,
          "593": -0.47168996930122375,
          "594": 1.161372423171997,
          "595": 0.7275075316429138,
          "596": -2.782872200012207,
          "597": -1.0764633417129517,
          "598": 0.3458935618400574,
          "599": -2.9404501914978027,
          "600": -0.4063454270362854,
          "601": -0.46759194135665894,
          "602": -0.6221134662628174,
          "603": 0.039270542562007904,
          "604": 1.0514345169067383,
          "605": 0.02046661078929901,
          "606": -1.159325361251831,
          "607": -0.17040157318115234,
          "608": -1.372450828552246,
          "609": 0.08591887354850769,
          "610": 0.23414798080921173,
          "611": 0.3083254396915436,
          "612": -2.081096887588501,
          "613": 1.3282803297042847,
          "614": -2.1390979290008545,
          "615": -0.34459084272384644,
          "616": -1.568029522895813,
          "617": -0.9973219633102417,
          "618": -0.08819204568862915,
          "619": 1.529707908630371
        }
      },
      "forgetHidden": {
        "rows": 20,
        "columns": 20,
        "weights": {
          "0": 1.365169644355774,
          "1": -1.4053678512573242,
          "2": -0.42160409688949585,
          "3": -1.071311593055725,
          "4": -1.824720859527588,
          "5": 0.5917366147041321,
          "6": -0.31501835584640503,
          "7": -0.4169747233390808,
          "8": -0.0422842763364315,
          "9": 1.1705738306045532,
          "10": 1.1130636930465698,
          "11": 1.038206696510315,
          "12": -0.7040694952011108,
          "13": 1.1940584182739258,
          "14": -0.6196112036705017,
          "15": -1.4411227703094482,
          "16": -0.8397049307823181,
          "17": -0.4299207031726837,
          "18": 0.5145436525344849,
          "19": -0.5097436904907227,
          "20": 1.1300681829452515,
          "21": 0.001595674199052155,
          "22": -1.7641457319259644,
          "23": -0.7510120272636414,
          "24": 0.54244464635849,
          "25": -2.1281826496124268,
          "26": 0.3867785930633545,
          "27": -0.6210730075836182,
          "28": 0.7229388356208801,
          "29": 2.6120429039001465,
          "30": 0.26998353004455566,
          "31": -0.041857194155454636,
          "32": -1.2307846546173096,
          "33": 0.6883533596992493,
          "34": -1.9559246301651,
          "35": 0.8361654877662659,
          "36": -1.2654567956924438,
          "37": -1.3443340063095093,
          "38": 2.9014363288879395,
          "39": 2.274756669998169,
          "40": -0.927018404006958,
          "41": -2.5298104286193848,
          "42": -1.8337337970733643,
          "43": -1.5050487518310547,
          "44": 0.45519664883613586,
          "45": 3.1823360919952393,
          "46": 0.6358649730682373,
          "47": 0.49281033873558044,
          "48": 3.3740572929382324,
          "49": -1.6305885314941406,
          "50": 1.698715090751648,
